<?xml version="1.0"?>
<opencv_storage>
<opencv_ml_svm>
  <format>3</format>
  <svmType>C_SVC</svmType>
  <kernel>
    <type>LINEAR</type></kernel>
  <C>1.</C>
  <term_criteria><iterations>100</iterations></term_criteria>
  <var_count>20</var_count>
  <class_count>2</class_count>
  <class_labels type_id="opencv-matrix">
    <rows>2</rows>
    <cols>1</cols>
    <dt>i</dt>
    <data>
      0 1</data></class_labels>
  <sv_total>1</sv_total>
  <support_vectors>
    <_>
      -6.30322099e-02 -7.37980986e-03 2.61990773e-03 2.63199979e-03
      -1.34102637e-02 -3.79659832e-02 -1.34244899e-03 4.40973876e-04
      -4.46086451e-02 -6.63583800e-02 1.28217670e-03 2.00612820e-03
      -2.98860425e-04 6.10978968e-05 -6.55732467e-04 -1.64010024e-04
      -2.42019934e-03 1.38941876e-04 5.15819080e-02 1.84986537e-04</_></support_vectors>
  <uncompressed_sv_total>6</uncompressed_sv_total>
  <uncompressed_support_vectors>
    <_>
      2.12876007e+02 2.56485996e+01 6.27304018e-01 3.64677000e+00
      1.54677994e+02 2.59113007e+01 -1.02785997e-01 1.22399002e-01
      1.10384003e+02 3.24640999e+01 3.96429002e-01 3.99098992e-01
      3.24593008e-01 5.22283971e-01 5.93557000e-01 7.62452006e-01
      2.02366996e+00 1.04874996e-02 4.40119019e+01 2.07493007e-01</_>
    <_>
      2.15604996e+02 3.72229996e+01 -3.91415000e-01 2.16486001e+00
      1.59132004e+02 4.13497009e+01 1.09761000e-01 -1.57876000e-01
      1.47184006e+02 3.70630989e+01 2.43624002e-01 1.09849997e-01
      4.48558986e-01 6.37499988e-01 4.00000006e-01 9.20246005e-01
      1.12886000e+00 7.81250000e-02 9.93750000e+01 1.30663998e-02</_>
    <_>
      2.26320007e+02 2.90216007e+01 -1.54488996e-01 2.94004011e+00
      1.65580994e+02 3.46240005e+01 1.76620007e-01 -3.66280004e-02
      1.17124001e+02 4.03031998e+01 1.79956004e-01 -6.30893977e-03
      4.37828004e-01 5.76695979e-01 7.13671029e-01 8.28431010e-01
      2.22442007e+00 6.77104015e-03 4.74309998e+01 1.46908998e-01</_>
    <_>
      2.07533005e+02 2.84384995e+01 1.83050007e-01 2.08328009e+00
      1.26083000e+02 2.83257008e+01 -2.26013009e-02 2.10906006e-03
      1.65117004e+02 4.17224998e+01 4.89698015e-02 -1.81406997e-02
      3.32060993e-01 4.61742997e-01 3.58249009e-01 9.27734017e-01
      1.59458005e+00 2.60770991e-02 5.28095016e+01 8.32946002e-02</_>
    <_>
      2.09957001e+02 3.59053993e+01 3.29903997e-02 2.20328999e+00
      1.36229004e+02 4.14222984e+01 9.28372964e-02 5.50370999e-02
      1.49828995e+02 4.60303001e+01 6.32463023e-02 1.13099001e-01
      3.11414987e-01 4.45360988e-01 4.16146010e-01 8.44268024e-01
      1.91648996e+00 1.32283000e-02 6.14482994e+01 8.08108971e-02</_>
    <_>
      2.17056000e+02 2.90130005e+01 -4.14449990e-01 2.39727998e+00
      1.62688004e+02 2.71972008e+01 4.65761982e-02 3.56528983e-02
      1.02394997e+02 1.88572006e+01 1.18597999e-01 1.65036004e-02
      4.58113998e-01 5.68664014e-01 7.19808996e-01 8.70779991e-01
      2.20488000e+00 6.98183989e-03 2.83710003e+01 2.20032007e-01</_></uncompressed_support_vectors>
  <decision_functions>
    <_>
      <sv_count>1</sv_count>
      <rho>-2.2466059763349445e+01</rho>
      <alpha>
        1.</alpha>
      <index>
        0</index></_></decision_functions></opencv_ml_svm>
</opencv_storage>
